digraph Tree {
node [shape=box, fontname="helvetica"] ;
edge [fontname="helvetica"] ;
0 [label="X[2] <= 0.012\ngini = 0.5\nsamples = 5602\nvalue = [2789, 2813]"] ;
1 [label="X[0] <= 0.183\ngini = 0.439\nsamples = 3344\nvalue = [2256, 1088]"] ;
0 -> 1 [labeldistance=2.5, labelangle=45, headlabel="True"] ;
2 [label="X[4] <= 2.5\ngini = 0.371\nsamples = 2076\nvalue = [1566, 510]"] ;
1 -> 2 ;
3 [label="X[0] <= -1.583\ngini = 0.357\nsamples = 1996\nvalue = [1531, 465]"] ;
2 -> 3 ;
4 [label="gini = 0.223\nsamples = 414\nvalue = [361, 53]"] ;
3 -> 4 ;
5 [label="gini = 0.385\nsamples = 1582\nvalue = [1170, 412]"] ;
3 -> 5 ;
6 [label="X[5] <= 2.5\ngini = 0.492\nsamples = 80\nvalue = [35, 45]"] ;
2 -> 6 ;
7 [label="gini = 0.394\nsamples = 37\nvalue = [10, 27]"] ;
6 -> 7 ;
8 [label="gini = 0.487\nsamples = 43\nvalue = [25, 18]"] ;
6 -> 8 ;
9 [label="X[4] <= 2.5\ngini = 0.496\nsamples = 1268\nvalue = [690, 578]"] ;
1 -> 9 ;
10 [label="X[9] <= 0.5\ngini = 0.488\nsamples = 1140\nvalue = [660, 480]"] ;
9 -> 10 ;
11 [label="gini = 0.498\nsamples = 268\nvalue = [125, 143]"] ;
10 -> 11 ;
12 [label="gini = 0.474\nsamples = 872\nvalue = [535, 337]"] ;
10 -> 12 ;
13 [label="X[1] <= -1.156\ngini = 0.359\nsamples = 128\nvalue = [30, 98]"] ;
9 -> 13 ;
14 [label="gini = 0.444\nsamples = 6\nvalue = [4, 2]"] ;
13 -> 14 ;
15 [label="gini = 0.335\nsamples = 122\nvalue = [26, 96]"] ;
13 -> 15 ;
16 [label="X[2] <= 0.09\ngini = 0.361\nsamples = 2258\nvalue = [533, 1725]"] ;
0 -> 16 [labeldistance=2.5, labelangle=-45, headlabel="False"] ;
17 [label="X[4] <= 2.5\ngini = 0.478\nsamples = 743\nvalue = [294, 449]"] ;
16 -> 17 ;
18 [label="X[3] <= -0.045\ngini = 0.491\nsamples = 616\nvalue = [267, 349]"] ;
17 -> 18 ;
19 [label="gini = 0.499\nsamples = 351\nvalue = [167, 184]"] ;
18 -> 19 ;
20 [label="gini = 0.47\nsamples = 265\nvalue = [100, 165]"] ;
18 -> 20 ;
21 [label="X[5] <= 2.5\ngini = 0.335\nsamples = 127\nvalue = [27, 100]"] ;
17 -> 21 ;
22 [label="gini = 0.204\nsamples = 78\nvalue = [9, 69]"] ;
21 -> 22 ;
23 [label="gini = 0.465\nsamples = 49\nvalue = [18, 31]"] ;
21 -> 23 ;
24 [label="X[2] <= 0.179\ngini = 0.266\nsamples = 1515\nvalue = [239, 1276]"] ;
16 -> 24 ;
25 [label="X[3] <= -0.089\ngini = 0.312\nsamples = 765\nvalue = [148, 617]"] ;
24 -> 25 ;
26 [label="gini = 0.444\nsamples = 33\nvalue = [11, 22]"] ;
25 -> 26 ;
27 [label="gini = 0.304\nsamples = 732\nvalue = [137, 595]"] ;
25 -> 27 ;
28 [label="X[2] <= 3.707\ngini = 0.213\nsamples = 750\nvalue = [91, 659]"] ;
24 -> 28 ;
29 [label="gini = 0.208\nsamples = 746\nvalue = [88, 658]"] ;
28 -> 29 ;
30 [label="gini = 0.375\nsamples = 4\nvalue = [3, 1]"] ;
28 -> 30 ;
}